FANN_FLO_2.1
num_layers=3
learning_rate=0.700000
connection_rate=1.000000
network_type=0
learning_momentum=0.000000
training_algorithm=2
train_error_function=1
train_stop_function=0
cascade_output_change_fraction=0.010000
quickprop_decay=-0.000100
quickprop_mu=1.750000
rprop_increase_factor=1.200000
rprop_decrease_factor=0.500000
rprop_delta_min=0.000000
rprop_delta_max=50.000000
rprop_delta_zero=0.100000
cascade_output_stagnation_epochs=12
cascade_candidate_change_fraction=0.010000
cascade_candidate_stagnation_epochs=12
cascade_max_out_epochs=150
cascade_min_out_epochs=50
cascade_max_cand_epochs=150
cascade_min_cand_epochs=50
cascade_num_candidate_groups=2
bit_fail_limit=3.49999994039535522461e-01
cascade_candidate_limit=1.00000000000000000000e+03
cascade_weight_multiplier=4.00000005960464477539e-01
cascade_activation_functions_count=10
cascade_activation_functions=3 5 7 8 10 11 14 15 16 17 
cascade_activation_steepnesses_count=4
cascade_activation_steepnesses=2.50000000000000000000e-01 5.00000000000000000000e-01 7.50000000000000000000e-01 1.00000000000000000000e+00 
layer_sizes=760 3 2 
scale_included=0
neurons (num_inputs, activation_function, activation_steepness)=(0, 0, 0.00000000000000000000e+00) (0, 0, 0.00000000000000000000e+00) (0, 0, 0.00000000000000000000e+00) (0, 0, 0.00000000000000000000e+00) (0, 0, 0.00000000000000000000e+00) (0, 0, 0.00000000000000000000e+00) (0, 0, 0.00000000000000000000e+00) (0, 0, 0.00000000000000000000e+00) (0, 0, 0.00000000000000000000e+00) (0, 0, 0.00000000000000000000e+00) (0, 0, 0.00000000000000000000e+00) (0, 0, 0.00000000000000000000e+00) (0, 0, 0.00000000000000000000e+00) (0, 0, 0.00000000000000000000e+00) (0, 0, 0.00000000000000000000e+00) (0, 0, 0.00000000000000000000e+00) (0, 0, 0.00000000000000000000e+00) (0, 0, 0.00000000000000000000e+00) (0, 0, 0.00000000000000000000e+00) (0, 0, 0.00000000000000000000e+00) (0, 0, 0.00000000000000000000e+00) (0, 0, 0.00000000000000000000e+00) (0, 0, 0.00000000000000000000e+00) (0, 0, 0.00000000000000000000e+00) (0, 0, 0.00000000000000000000e+00) (0, 0, 0.00000000000000000000e+00) (0, 0, 0.00000000000000000000e+00) (0, 0, 0.00000000000000000000e+00) (0, 0, 0.00000000000000000000e+00) (0, 0, 0.00000000000000000000e+00) (0, 0, 0.00000000000000000000e+00) (0, 0, 0.00000000000000000000e+00) (0, 0, 0.00000000000000000000e+00) (0, 0, 0.00000000000000000000e+00) (0, 0, 0.00000000000000000000e+00) (0, 0, 0.00000000000000000000e+00) (0, 0, 0.00000000000000000000e+00) (0, 0, 0.00000000000000000000e+00) (0, 0, 0.00000000000000000000e+00) (0, 0, 0.00000000000000000000e+00) (0, 0, 0.00000000000000000000e+00) (0, 0, 0.00000000000000000000e+00) (0, 0, 0.00000000000000000000e+00) (0, 0, 0.00000000000000000000e+00) (0, 0, 0.00000000000000000000e+00) (0, 0, 0.00000000000000000000e+00) (0, 0, 0.00000000000000000000e+00) (0, 0, 0.00000000000000000000e+00) (0, 0, 0.00000000000000000000e+00) (0, 0, 0.00000000000000000000e+00) (0, 0, 0.00000000000000000000e+00) (0, 0, 0.00000000000000000000e+00) (0, 0, 0.00000000000000000000e+00) (0, 0, 0.00000000000000000000e+00) (0, 0, 0.00000000000000000000e+00) (0, 0, 0.00000000000000000000e+00) (0, 0, 0.00000000000000000000e+00) (0, 0, 0.00000000000000000000e+00) (0, 0, 0.00000000000000000000e+00) (0, 0, 0.00000000000000000000e+00) (0, 0, 0.00000000000000000000e+00) (0, 0, 0.00000000000000000000e+00) (0, 0, 0.00000000000000000000e+00) (0, 0, 0.00000000000000000000e+00) (0, 0, 0.00000000000000000000e+00) (0, 0, 0.00000000000000000000e+00) (0, 0, 0.00000000000000000000e+00) (0, 0, 0.00000000000000000000e+00) (0, 0, 0.00000000000000000000e+00) (0, 0, 0.00000000000000000000e+00) (0, 0, 0.00000000000000000000e+00) (0, 0, 0.00000000000000000000e+00) (0, 0, 0.00000000000000000000e+00) (0, 0, 0.00000000000000000000e+00) (0, 0, 0.00000000000000000000e+00) (0, 0, 0.00000000000000000000e+00) (0, 0, 0.00000000000000000000e+00) (0, 0, 0.00000000000000000000e+00) (0, 0, 0.00000000000000000000e+00) (0, 0, 0.00000000000000000000e+00) (0, 0, 0.00000000000000000000e+00) (0, 0, 0.00000000000000000000e+00) (0, 0, 0.00000000000000000000e+00) (0, 0, 0.00000000000000000000e+00) (0, 0, 0.00000000000000000000e+00) (0, 0, 0.00000000000000000000e+00) (0, 0, 0.00000000000000000000e+00) (0, 0, 0.00000000000000000000e+00) (0, 0, 0.00000000000000000000e+00) (0, 0, 0.00000000000000000000e+00) (0, 0, 0.00000000000000000000e+00) (0, 0, 0.00000000000000000000e+00) (0, 0, 0.00000000000000000000e+00) (0, 0, 0.00000000000000000000e+00) (0, 0, 0.00000000000000000000e+00) (0, 0, 0.00000000000000000000e+00) (0, 0, 0.00000000000000000000e+00) (0, 0, 0.00000000000000000000e+00) (0, 0, 0.00000000000000000000e+00) (0, 0, 0.00000000000000000000e+00) (0, 0, 0.00000000000000000000e+00) (0, 0, 0.00000000000000000000e+00) (0, 0, 0.00000000000000000000e+00) (0, 0, 0.00000000000000000000e+00) (0, 0, 0.00000000000000000000e+00) (0, 0, 0.00000000000000000000e+00) (0, 0, 0.00000000000000000000e+00) (0, 0, 0.00000000000000000000e+00) (0, 0, 0.00000000000000000000e+00) (0, 0, 0.00000000000000000000e+00) (0, 0, 0.00000000000000000000e+00) (0, 0, 0.00000000000000000000e+00) (0, 0, 0.00000000000000000000e+00) (0, 0, 0.00000000000000000000e+00) (0, 0, 0.00000000000000000000e+00) (0, 0, 0.00000000000000000000e+00) (0, 0, 0.00000000000000000000e+00) (0, 0, 0.00000000000000000000e+00) (0, 0, 0.00000000000000000000e+00) (0, 0, 0.00000000000000000000e+00) (0, 0, 0.00000000000000000000e+00) (0, 0, 0.00000000000000000000e+00) (0, 0, 0.00000000000000000000e+00) (0, 0, 0.00000000000000000000e+00) (0, 0, 0.00000000000000000000e+00) (0, 0, 0.00000000000000000000e+00) (0, 0, 0.00000000000000000000e+00) (0, 0, 0.00000000000000000000e+00) (0, 0, 0.00000000000000000000e+00) (0, 0, 0.00000000000000000000e+00) (0, 0, 0.00000000000000000000e+00) (0, 0, 0.00000000000000000000e+00) (0, 0, 0.00000000000000000000e+00) (0, 0, 0.00000000000000000000e+00) (0, 0, 0.00000000000000000000e+00) (0, 0, 0.00000000000000000000e+00) (0, 0, 0.00000000000000000000e+00) (0, 0, 0.00000000000000000000e+00) (0, 0, 0.00000000000000000000e+00) (0, 0, 0.00000000000000000000e+00) (0, 0, 0.00000000000000000000e+00) (0, 0, 0.00000000000000000000e+00) (0, 0, 0.00000000000000000000e+00) (0, 0, 0.00000000000000000000e+00) (0, 0, 0.00000000000000000000e+00) (0, 0, 0.00000000000000000000e+00) (0, 0, 0.00000000000000000000e+00) (0, 0, 0.00000000000000000000e+00) (0, 0, 0.00000000000000000000e+00) (0, 0, 0.00000000000000000000e+00) (0, 0, 0.00000000000000000000e+00) (0, 0, 0.00000000000000000000e+00) (0, 0, 0.00000000000000000000e+00) (0, 0, 0.00000000000000000000e+00) (0, 0, 0.00000000000000000000e+00) (0, 0, 0.00000000000000000000e+00) (0, 0, 0.00000000000000000000e+00) (0, 0, 0.00000000000000000000e+00) (0, 0, 0.00000000000000000000e+00) (0, 0, 0.00000000000000000000e+00) (0, 0, 0.00000000000000000000e+00) (0, 0, 0.00000000000000000000e+00) (0, 0, 0.00000000000000000000e+00) (0, 0, 0.00000000000000000000e+00) (0, 0, 0.00000000000000000000e+00) (0, 0, 0.00000000000000000000e+00) (0, 0, 0.00000000000000000000e+00) (0, 0, 0.00000000000000000000e+00) (0, 0, 0.00000000000000000000e+00) (0, 0, 0.00000000000000000000e+00) (0, 0, 0.00000000000000000000e+00) (0, 0, 0.00000000000000000000e+00) (0, 0, 0.00000000000000000000e+00) (0, 0, 0.00000000000000000000e+00) (0, 0, 0.00000000000000000000e+00) (0, 0, 0.00000000000000000000e+00) (0, 0, 0.00000000000000000000e+00) (0, 0, 0.00000000000000000000e+00) (0, 0, 0.00000000000000000000e+00) (0, 0, 0.00000000000000000000e+00) (0, 0, 0.00000000000000000000e+00) (0, 0, 0.00000000000000000000e+00) (0, 0, 0.00000000000000000000e+00) (0, 0, 0.00000000000000000000e+00) (0, 0, 0.00000000000000000000e+00) (0, 0, 0.00000000000000000000e+00) (0, 0, 0.00000000000000000000e+00) (0, 0, 0.00000000000000000000e+00) (0, 0, 0.00000000000000000000e+00) (0, 0, 0.00000000000000000000e+00) (0, 0, 0.00000000000000000000e+00) (0, 0, 0.00000000000000000000e+00) (0, 0, 0.00000000000000000000e+00) (0, 0, 0.00000000000000000000e+00) (0, 0, 0.00000000000000000000e+00) (0, 0, 0.00000000000000000000e+00) (0, 0, 0.00000000000000000000e+00) (0, 0, 0.00000000000000000000e+00) (0, 0, 0.00000000000000000000e+00) (0, 0, 0.00000000000000000000e+00) (0, 0, 0.00000000000000000000e+00) (0, 0, 0.00000000000000000000e+00) (0, 0, 0.00000000000000000000e+00) (0, 0, 0.00000000000000000000e+00) (0, 0, 0.00000000000000000000e+00) (0, 0, 0.00000000000000000000e+00) (0, 0, 0.00000000000000000000e+00) (0, 0, 0.00000000000000000000e+00) (0, 0, 0.00000000000000000000e+00) (0, 0, 0.00000000000000000000e+00) (0, 0, 0.00000000000000000000e+00) (0, 0, 0.00000000000000000000e+00) (0, 0, 0.00000000000000000000e+00) (0, 0, 0.00000000000000000000e+00) (0, 0, 0.00000000000000000000e+00) (0, 0, 0.00000000000000000000e+00) (0, 0, 0.00000000000000000000e+00) (0, 0, 0.00000000000000000000e+00) (0, 0, 0.00000000000000000000e+00) (0, 0, 0.00000000000000000000e+00) (0, 0, 0.00000000000000000000e+00) (0, 0, 0.00000000000000000000e+00) (0, 0, 0.00000000000000000000e+00) (0, 0, 0.00000000000000000000e+00) (0, 0, 0.00000000000000000000e+00) (0, 0, 0.00000000000000000000e+00) (0, 0, 0.00000000000000000000e+00) (0, 0, 0.00000000000000000000e+00) (0, 0, 0.00000000000000000000e+00) (0, 0, 0.00000000000000000000e+00) (0, 0, 0.00000000000000000000e+00) (0, 0, 0.00000000000000000000e+00) (0, 0, 0.00000000000000000000e+00) (0, 0, 0.00000000000000000000e+00) (0, 0, 0.00000000000000000000e+00) (0, 0, 0.00000000000000000000e+00) (0, 0, 0.00000000000000000000e+00) (0, 0, 0.00000000000000000000e+00) (0, 0, 0.00000000000000000000e+00) (0, 0, 0.00000000000000000000e+00) (0, 0, 0.00000000000000000000e+00) (0, 0, 0.00000000000000000000e+00) (0, 0, 0.00000000000000000000e+00) (0, 0, 0.00000000000000000000e+00) (0, 0, 0.00000000000000000000e+00) (0, 0, 0.00000000000000000000e+00) (0, 0, 0.00000000000000000000e+00) (0, 0, 0.00000000000000000000e+00) (0, 0, 0.00000000000000000000e+00) (0, 0, 0.00000000000000000000e+00) (0, 0, 0.00000000000000000000e+00) (0, 0, 0.00000000000000000000e+00) (0, 0, 0.00000000000000000000e+00) (0, 0, 0.00000000000000000000e+00) (0, 0, 0.00000000000000000000e+00) (0, 0, 0.00000000000000000000e+00) (0, 0, 0.00000000000000000000e+00) (0, 0, 0.00000000000000000000e+00) (0, 0, 0.00000000000000000000e+00) (0, 0, 0.00000000000000000000e+00) (0, 0, 0.00000000000000000000e+00) (0, 0, 0.00000000000000000000e+00) (0, 0, 0.00000000000000000000e+00) (0, 0, 0.00000000000000000000e+00) (0, 0, 0.00000000000000000000e+00) (0, 0, 0.00000000000000000000e+00) (0, 0, 0.00000000000000000000e+00) (0, 0, 0.00000000000000000000e+00) (0, 0, 0.00000000000000000000e+00) (0, 0, 0.00000000000000000000e+00) (0, 0, 0.00000000000000000000e+00) (0, 0, 0.00000000000000000000e+00) (0, 0, 0.00000000000000000000e+00) (0, 0, 0.00000000000000000000e+00) (0, 0, 0.00000000000000000000e+00) (0, 0, 0.00000000000000000000e+00) (0, 0, 0.00000000000000000000e+00) (0, 0, 0.00000000000000000000e+00) (0, 0, 0.00000000000000000000e+00) (0, 0, 0.00000000000000000000e+00) (0, 0, 0.00000000000000000000e+00) (0, 0, 0.00000000000000000000e+00) (0, 0, 0.00000000000000000000e+00) (0, 0, 0.00000000000000000000e+00) (0, 0, 0.00000000000000000000e+00) (0, 0, 0.00000000000000000000e+00) (0, 0, 0.00000000000000000000e+00) (0, 0, 0.00000000000000000000e+00) (0, 0, 0.00000000000000000000e+00) (0, 0, 0.00000000000000000000e+00) (0, 0, 0.00000000000000000000e+00) (0, 0, 0.00000000000000000000e+00) (0, 0, 0.00000000000000000000e+00) (0, 0, 0.00000000000000000000e+00) (0, 0, 0.00000000000000000000e+00) (0, 0, 0.00000000000000000000e+00) (0, 0, 0.00000000000000000000e+00) (0, 0, 0.00000000000000000000e+00) (0, 0, 0.00000000000000000000e+00) (0, 0, 0.00000000000000000000e+00) (0, 0, 0.00000000000000000000e+00) (0, 0, 0.00000000000000000000e+00) (0, 0, 0.00000000000000000000e+00) (0, 0, 0.00000000000000000000e+00) (0, 0, 0.00000000000000000000e+00) (0, 0, 0.00000000000000000000e+00) (0, 0, 0.00000000000000000000e+00) (0, 0, 0.00000000000000000000e+00) (0, 0, 0.00000000000000000000e+00) (0, 0, 0.00000000000000000000e+00) (0, 0, 0.00000000000000000000e+00) (0, 0, 0.00000000000000000000e+00) (0, 0, 0.00000000000000000000e+00) (0, 0, 0.00000000000000000000e+00) (0, 0, 0.00000000000000000000e+00) (0, 0, 0.00000000000000000000e+00) (0, 0, 0.00000000000000000000e+00) (0, 0, 0.00000000000000000000e+00) (0, 0, 0.00000000000000000000e+00) (0, 0, 0.00000000000000000000e+00) (0, 0, 0.00000000000000000000e+00) (0, 0, 0.00000000000000000000e+00) (0, 0, 0.00000000000000000000e+00) (0, 0, 0.00000000000000000000e+00) (0, 0, 0.00000000000000000000e+00) (0, 0, 0.00000000000000000000e+00) (0, 0, 0.00000000000000000000e+00) (0, 0, 0.00000000000000000000e+00) (0, 0, 0.00000000000000000000e+00) (0, 0, 0.00000000000000000000e+00) (0, 0, 0.00000000000000000000e+00) (0, 0, 0.00000000000000000000e+00) (0, 0, 0.00000000000000000000e+00) (0, 0, 0.00000000000000000000e+00) (0, 0, 0.00000000000000000000e+00) (0, 0, 0.00000000000000000000e+00) (0, 0, 0.00000000000000000000e+00) (0, 0, 0.00000000000000000000e+00) (0, 0, 0.00000000000000000000e+00) (0, 0, 0.00000000000000000000e+00) (0, 0, 0.00000000000000000000e+00) (0, 0, 0.00000000000000000000e+00) (0, 0, 0.00000000000000000000e+00) (0, 0, 0.00000000000000000000e+00) (0, 0, 0.00000000000000000000e+00) (0, 0, 0.00000000000000000000e+00) (0, 0, 0.00000000000000000000e+00) (0, 0, 0.00000000000000000000e+00) (0, 0, 0.00000000000000000000e+00) (0, 0, 0.00000000000000000000e+00) (0, 0, 0.00000000000000000000e+00) (0, 0, 0.00000000000000000000e+00) (0, 0, 0.00000000000000000000e+00) (0, 0, 0.00000000000000000000e+00) (0, 0, 0.00000000000000000000e+00) (0, 0, 0.00000000000000000000e+00) (0, 0, 0.00000000000000000000e+00) (0, 0, 0.00000000000000000000e+00) (0, 0, 0.00000000000000000000e+00) (0, 0, 0.00000000000000000000e+00) (0, 0, 0.00000000000000000000e+00) (0, 0, 0.00000000000000000000e+00) (0, 0, 0.00000000000000000000e+00) (0, 0, 0.00000000000000000000e+00) (0, 0, 0.00000000000000000000e+00) (0, 0, 0.00000000000000000000e+00) (0, 0, 0.00000000000000000000e+00) (0, 0, 0.00000000000000000000e+00) (0, 0, 0.00000000000000000000e+00) (0, 0, 0.00000000000000000000e+00) (0, 0, 0.00000000000000000000e+00) (0, 0, 0.00000000000000000000e+00) (0, 0, 0.00000000000000000000e+00) (0, 0, 0.00000000000000000000e+00) (0, 0, 0.00000000000000000000e+00) (0, 0, 0.00000000000000000000e+00) (0, 0, 0.00000000000000000000e+00) (0, 0, 0.00000000000000000000e+00) (0, 0, 0.00000000000000000000e+00) (0, 0, 0.00000000000000000000e+00) (0, 0, 0.00000000000000000000e+00) (0, 0, 0.00000000000000000000e+00) (0, 0, 0.00000000000000000000e+00) (0, 0, 0.00000000000000000000e+00) (0, 0, 0.00000000000000000000e+00) (0, 0, 0.00000000000000000000e+00) (0, 0, 0.00000000000000000000e+00) (0, 0, 0.00000000000000000000e+00) (0, 0, 0.00000000000000000000e+00) (0, 0, 0.00000000000000000000e+00) (0, 0, 0.00000000000000000000e+00) (0, 0, 0.00000000000000000000e+00) (0, 0, 0.00000000000000000000e+00) (0, 0, 0.00000000000000000000e+00) (0, 0, 0.00000000000000000000e+00) (0, 0, 0.00000000000000000000e+00) (0, 0, 0.00000000000000000000e+00) (0, 0, 0.00000000000000000000e+00) (0, 0, 0.00000000000000000000e+00) (0, 0, 0.00000000000000000000e+00) (0, 0, 0.00000000000000000000e+00) (0, 0, 0.00000000000000000000e+00) (0, 0, 0.00000000000000000000e+00) (0, 0, 0.00000000000000000000e+00) (0, 0, 0.00000000000000000000e+00) (0, 0, 0.00000000000000000000e+00) (0, 0, 0.00000000000000000000e+00) (0, 0, 0.00000000000000000000e+00) (0, 0, 0.00000000000000000000e+00) (0, 0, 0.00000000000000000000e+00) (0, 0, 0.00000000000000000000e+00) (0, 0, 0.00000000000000000000e+00) (0, 0, 0.00000000000000000000e+00) (0, 0, 0.00000000000000000000e+00) (0, 0, 0.00000000000000000000e+00) (0, 0, 0.00000000000000000000e+00) (0, 0, 0.00000000000000000000e+00) (0, 0, 0.00000000000000000000e+00) (0, 0, 0.00000000000000000000e+00) (0, 0, 0.00000000000000000000e+00) (0, 0, 0.00000000000000000000e+00) (0, 0, 0.00000000000000000000e+00) (0, 0, 0.00000000000000000000e+00) (0, 0, 0.00000000000000000000e+00) (0, 0, 0.00000000000000000000e+00) (0, 0, 0.00000000000000000000e+00) (0, 0, 0.00000000000000000000e+00) (0, 0, 0.00000000000000000000e+00) (0, 0, 0.00000000000000000000e+00) (0, 0, 0.00000000000000000000e+00) (0, 0, 0.00000000000000000000e+00) (0, 0, 0.00000000000000000000e+00) (0, 0, 0.00000000000000000000e+00) (0, 0, 0.00000000000000000000e+00) (0, 0, 0.00000000000000000000e+00) (0, 0, 0.00000000000000000000e+00) (0, 0, 0.00000000000000000000e+00) (0, 0, 0.00000000000000000000e+00) (0, 0, 0.00000000000000000000e+00) (0, 0, 0.00000000000000000000e+00) (0, 0, 0.00000000000000000000e+00) (0, 0, 0.00000000000000000000e+00) (0, 0, 0.00000000000000000000e+00) (0, 0, 0.00000000000000000000e+00) (0, 0, 0.00000000000000000000e+00) (0, 0, 0.00000000000000000000e+00) (0, 0, 0.00000000000000000000e+00) (0, 0, 0.00000000000000000000e+00) (0, 0, 0.00000000000000000000e+00) (0, 0, 0.00000000000000000000e+00) (0, 0, 0.00000000000000000000e+00) (0, 0, 0.00000000000000000000e+00) (0, 0, 0.00000000000000000000e+00) (0, 0, 0.00000000000000000000e+00) (0, 0, 0.00000000000000000000e+00) (0, 0, 0.00000000000000000000e+00) (0, 0, 0.00000000000000000000e+00) (0, 0, 0.00000000000000000000e+00) (0, 0, 0.00000000000000000000e+00) (0, 0, 0.00000000000000000000e+00) (0, 0, 0.00000000000000000000e+00) (0, 0, 0.00000000000000000000e+00) (0, 0, 0.00000000000000000000e+00) (0, 0, 0.00000000000000000000e+00) (0, 0, 0.00000000000000000000e+00) (0, 0, 0.00000000000000000000e+00) (0, 0, 0.00000000000000000000e+00) (0, 0, 0.00000000000000000000e+00) (0, 0, 0.00000000000000000000e+00) (0, 0, 0.00000000000000000000e+00) (0, 0, 0.00000000000000000000e+00) (0, 0, 0.00000000000000000000e+00) (0, 0, 0.00000000000000000000e+00) (0, 0, 0.00000000000000000000e+00) (0, 0, 0.00000000000000000000e+00) (0, 0, 0.00000000000000000000e+00) (0, 0, 0.00000000000000000000e+00) (0, 0, 0.00000000000000000000e+00) (0, 0, 0.00000000000000000000e+00) (0, 0, 0.00000000000000000000e+00) (0, 0, 0.00000000000000000000e+00) (0, 0, 0.00000000000000000000e+00) (0, 0, 0.00000000000000000000e+00) (0, 0, 0.00000000000000000000e+00) (0, 0, 0.00000000000000000000e+00) (0, 0, 0.00000000000000000000e+00) (0, 0, 0.00000000000000000000e+00) (0, 0, 0.00000000000000000000e+00) (0, 0, 0.00000000000000000000e+00) (0, 0, 0.00000000000000000000e+00) (0, 0, 0.00000000000000000000e+00) (0, 0, 0.00000000000000000000e+00) (0, 0, 0.00000000000000000000e+00) (0, 0, 0.00000000000000000000e+00) (0, 0, 0.00000000000000000000e+00) (0, 0, 0.00000000000000000000e+00) (0, 0, 0.00000000000000000000e+00) (0, 0, 0.00000000000000000000e+00) (0, 0, 0.00000000000000000000e+00) (0, 0, 0.00000000000000000000e+00) (0, 0, 0.00000000000000000000e+00) (0, 0, 0.00000000000000000000e+00) (0, 0, 0.00000000000000000000e+00) (0, 0, 0.00000000000000000000e+00) (0, 0, 0.00000000000000000000e+00) (0, 0, 0.00000000000000000000e+00) (0, 0, 0.00000000000000000000e+00) (0, 0, 0.00000000000000000000e+00) (0, 0, 0.00000000000000000000e+00) (0, 0, 0.00000000000000000000e+00) (0, 0, 0.00000000000000000000e+00) (0, 0, 0.00000000000000000000e+00) (0, 0, 0.00000000000000000000e+00) (0, 0, 0.00000000000000000000e+00) (0, 0, 0.00000000000000000000e+00) (0, 0, 0.00000000000000000000e+00) (0, 0, 0.00000000000000000000e+00) (0, 0, 0.00000000000000000000e+00) (0, 0, 0.00000000000000000000e+00) (0, 0, 0.00000000000000000000e+00) (0, 0, 0.00000000000000000000e+00) (0, 0, 0.00000000000000000000e+00) (0, 0, 0.00000000000000000000e+00) (0, 0, 0.00000000000000000000e+00) (0, 0, 0.00000000000000000000e+00) (0, 0, 0.00000000000000000000e+00) (0, 0, 0.00000000000000000000e+00) (0, 0, 0.00000000000000000000e+00) (0, 0, 0.00000000000000000000e+00) (0, 0, 0.00000000000000000000e+00) (0, 0, 0.00000000000000000000e+00) (0, 0, 0.00000000000000000000e+00) (0, 0, 0.00000000000000000000e+00) (0, 0, 0.00000000000000000000e+00) (0, 0, 0.00000000000000000000e+00) (0, 0, 0.00000000000000000000e+00) (0, 0, 0.00000000000000000000e+00) (0, 0, 0.00000000000000000000e+00) (0, 0, 0.00000000000000000000e+00) (0, 0, 0.00000000000000000000e+00) (0, 0, 0.00000000000000000000e+00) (0, 0, 0.00000000000000000000e+00) (0, 0, 0.00000000000000000000e+00) (0, 0, 0.00000000000000000000e+00) (0, 0, 0.00000000000000000000e+00) (0, 0, 0.00000000000000000000e+00) (0, 0, 0.00000000000000000000e+00) (0, 0, 0.00000000000000000000e+00) (0, 0, 0.00000000000000000000e+00) (0, 0, 0.00000000000000000000e+00) (0, 0, 0.00000000000000000000e+00) (0, 0, 0.00000000000000000000e+00) (0, 0, 0.00000000000000000000e+00) (0, 0, 0.00000000000000000000e+00) (0, 0, 0.00000000000000000000e+00) (0, 0, 0.00000000000000000000e+00) (0, 0, 0.00000000000000000000e+00) (0, 0, 0.00000000000000000000e+00) (0, 0, 0.00000000000000000000e+00) (0, 0, 0.00000000000000000000e+00) (0, 0, 0.00000000000000000000e+00) (0, 0, 0.00000000000000000000e+00) (0, 0, 0.00000000000000000000e+00) (0, 0, 0.00000000000000000000e+00) (0, 0, 0.00000000000000000000e+00) (0, 0, 0.00000000000000000000e+00) (0, 0, 0.00000000000000000000e+00) (0, 0, 0.00000000000000000000e+00) (0, 0, 0.00000000000000000000e+00) (0, 0, 0.00000000000000000000e+00) (0, 0, 0.00000000000000000000e+00) (0, 0, 0.00000000000000000000e+00) (0, 0, 0.00000000000000000000e+00) (0, 0, 0.00000000000000000000e+00) (0, 0, 0.00000000000000000000e+00) (0, 0, 0.00000000000000000000e+00) (0, 0, 0.00000000000000000000e+00) (0, 0, 0.00000000000000000000e+00) (0, 0, 0.00000000000000000000e+00) (0, 0, 0.00000000000000000000e+00) (0, 0, 0.00000000000000000000e+00) (0, 0, 0.00000000000000000000e+00) (0, 0, 0.00000000000000000000e+00) (0, 0, 0.00000000000000000000e+00) (0, 0, 0.00000000000000000000e+00) (0, 0, 0.00000000000000000000e+00) (0, 0, 0.00000000000000000000e+00) (0, 0, 0.00000000000000000000e+00) (0, 0, 0.00000000000000000000e+00) (0, 0, 0.00000000000000000000e+00) (0, 0, 0.00000000000000000000e+00) (0, 0, 0.00000000000000000000e+00) (0, 0, 0.00000000000000000000e+00) (0, 0, 0.00000000000000000000e+00) (0, 0, 0.00000000000000000000e+00) (0, 0, 0.00000000000000000000e+00) (0, 0, 0.00000000000000000000e+00) (0, 0, 0.00000000000000000000e+00) (0, 0, 0.00000000000000000000e+00) (0, 0, 0.00000000000000000000e+00) (0, 0, 0.00000000000000000000e+00) (0, 0, 0.00000000000000000000e+00) (0, 0, 0.00000000000000000000e+00) (0, 0, 0.00000000000000000000e+00) (0, 0, 0.00000000000000000000e+00) (0, 0, 0.00000000000000000000e+00) (0, 0, 0.00000000000000000000e+00) (0, 0, 0.00000000000000000000e+00) (0, 0, 0.00000000000000000000e+00) (0, 0, 0.00000000000000000000e+00) (0, 0, 0.00000000000000000000e+00) (0, 0, 0.00000000000000000000e+00) (0, 0, 0.00000000000000000000e+00) (0, 0, 0.00000000000000000000e+00) (0, 0, 0.00000000000000000000e+00) (0, 0, 0.00000000000000000000e+00) (0, 0, 0.00000000000000000000e+00) (0, 0, 0.00000000000000000000e+00) (0, 0, 0.00000000000000000000e+00) (0, 0, 0.00000000000000000000e+00) (0, 0, 0.00000000000000000000e+00) (0, 0, 0.00000000000000000000e+00) (0, 0, 0.00000000000000000000e+00) (0, 0, 0.00000000000000000000e+00) (0, 0, 0.00000000000000000000e+00) (0, 0, 0.00000000000000000000e+00) (0, 0, 0.00000000000000000000e+00) (0, 0, 0.00000000000000000000e+00) (0, 0, 0.00000000000000000000e+00) (0, 0, 0.00000000000000000000e+00) (0, 0, 0.00000000000000000000e+00) (0, 0, 0.00000000000000000000e+00) (0, 0, 0.00000000000000000000e+00) (0, 0, 0.00000000000000000000e+00) (0, 0, 0.00000000000000000000e+00) (0, 0, 0.00000000000000000000e+00) (0, 0, 0.00000000000000000000e+00) (0, 0, 0.00000000000000000000e+00) (0, 0, 0.00000000000000000000e+00) (0, 0, 0.00000000000000000000e+00) (0, 0, 0.00000000000000000000e+00) (0, 0, 0.00000000000000000000e+00) (0, 0, 0.00000000000000000000e+00) (0, 0, 0.00000000000000000000e+00) (0, 0, 0.00000000000000000000e+00) (0, 0, 0.00000000000000000000e+00) (0, 0, 0.00000000000000000000e+00) (0, 0, 0.00000000000000000000e+00) (0, 0, 0.00000000000000000000e+00) (0, 0, 0.00000000000000000000e+00) (0, 0, 0.00000000000000000000e+00) (0, 0, 0.00000000000000000000e+00) (0, 0, 0.00000000000000000000e+00) (0, 0, 0.00000000000000000000e+00) (0, 0, 0.00000000000000000000e+00) (0, 0, 0.00000000000000000000e+00) (0, 0, 0.00000000000000000000e+00) (0, 0, 0.00000000000000000000e+00) (0, 0, 0.00000000000000000000e+00) (0, 0, 0.00000000000000000000e+00) (0, 0, 0.00000000000000000000e+00) (0, 0, 0.00000000000000000000e+00) (0, 0, 0.00000000000000000000e+00) (0, 0, 0.00000000000000000000e+00) (0, 0, 0.00000000000000000000e+00) (0, 0, 0.00000000000000000000e+00) (0, 0, 0.00000000000000000000e+00) (0, 0, 0.00000000000000000000e+00) (0, 0, 0.00000000000000000000e+00) (0, 0, 0.00000000000000000000e+00) (0, 0, 0.00000000000000000000e+00) (0, 0, 0.00000000000000000000e+00) (0, 0, 0.00000000000000000000e+00) (0, 0, 0.00000000000000000000e+00) (0, 0, 0.00000000000000000000e+00) (0, 0, 0.00000000000000000000e+00) (0, 0, 0.00000000000000000000e+00) (0, 0, 0.00000000000000000000e+00) (0, 0, 0.00000000000000000000e+00) (0, 0, 0.00000000000000000000e+00) (0, 0, 0.00000000000000000000e+00) (0, 0, 0.00000000000000000000e+00) (0, 0, 0.00000000000000000000e+00) (0, 0, 0.00000000000000000000e+00) (0, 0, 0.00000000000000000000e+00) (0, 0, 0.00000000000000000000e+00) (0, 0, 0.00000000000000000000e+00) (0, 0, 0.00000000000000000000e+00) (0, 0, 0.00000000000000000000e+00) (0, 0, 0.00000000000000000000e+00) (0, 0, 0.00000000000000000000e+00) (0, 0, 0.00000000000000000000e+00) (0, 0, 0.00000000000000000000e+00) (0, 0, 0.00000000000000000000e+00) (0, 0, 0.00000000000000000000e+00) (0, 0, 0.00000000000000000000e+00) (0, 0, 0.00000000000000000000e+00) (0, 0, 0.00000000000000000000e+00) (0, 0, 0.00000000000000000000e+00) (0, 0, 0.00000000000000000000e+00) (0, 0, 0.00000000000000000000e+00) (0, 0, 0.00000000000000000000e+00) (0, 0, 0.00000000000000000000e+00) (0, 0, 0.00000000000000000000e+00) (0, 0, 0.00000000000000000000e+00) (0, 0, 0.00000000000000000000e+00) (0, 0, 0.00000000000000000000e+00) (0, 0, 0.00000000000000000000e+00) (0, 0, 0.00000000000000000000e+00) (0, 0, 0.00000000000000000000e+00) (0, 0, 0.00000000000000000000e+00) (0, 0, 0.00000000000000000000e+00) (0, 0, 0.00000000000000000000e+00) (0, 0, 0.00000000000000000000e+00) (0, 0, 0.00000000000000000000e+00) (0, 0, 0.00000000000000000000e+00) (0, 0, 0.00000000000000000000e+00) (0, 0, 0.00000000000000000000e+00) (0, 0, 0.00000000000000000000e+00) (0, 0, 0.00000000000000000000e+00) (0, 0, 0.00000000000000000000e+00) (0, 0, 0.00000000000000000000e+00) (0, 0, 0.00000000000000000000e+00) (0, 0, 0.00000000000000000000e+00) (0, 0, 0.00000000000000000000e+00) (0, 0, 0.00000000000000000000e+00) (0, 0, 0.00000000000000000000e+00) (0, 0, 0.00000000000000000000e+00) (0, 0, 0.00000000000000000000e+00) (0, 0, 0.00000000000000000000e+00) (0, 0, 0.00000000000000000000e+00) (0, 0, 0.00000000000000000000e+00) (0, 0, 0.00000000000000000000e+00) (0, 0, 0.00000000000000000000e+00) (0, 0, 0.00000000000000000000e+00) (0, 0, 0.00000000000000000000e+00) (0, 0, 0.00000000000000000000e+00) (0, 0, 0.00000000000000000000e+00) (0, 0, 0.00000000000000000000e+00) (0, 0, 0.00000000000000000000e+00) (0, 0, 0.00000000000000000000e+00) (0, 0, 0.00000000000000000000e+00) (0, 0, 0.00000000000000000000e+00) (0, 0, 0.00000000000000000000e+00) (0, 0, 0.00000000000000000000e+00) (0, 0, 0.00000000000000000000e+00) (0, 0, 0.00000000000000000000e+00) (0, 0, 0.00000000000000000000e+00) (0, 0, 0.00000000000000000000e+00) (0, 0, 0.00000000000000000000e+00) (0, 0, 0.00000000000000000000e+00) (0, 0, 0.00000000000000000000e+00) (0, 0, 0.00000000000000000000e+00) (0, 0, 0.00000000000000000000e+00) (0, 0, 0.00000000000000000000e+00) (0, 0, 0.00000000000000000000e+00) (0, 0, 0.00000000000000000000e+00) (0, 0, 0.00000000000000000000e+00) (0, 0, 0.00000000000000000000e+00) (0, 0, 0.00000000000000000000e+00) (760, 12, 5.00000000000000000000e-01) (760, 10, 5.00000000000000000000e-01) (0, 0, 0.00000000000000000000e+00) (3, 12, 5.00000000000000000000e-01) (0, 12, 0.00000000000000000000e+00) 
connections (connected_to_neuron, weight)=(0, 1.50000000000000000000e+03) (1, 1.50000000000000000000e+03) (2, 1.50000000000000000000e+03) (3, 1.50000000000000000000e+03) (4, 1.50000000000000000000e+03) (5, 1.50000000000000000000e+03) (6, 1.50000000000000000000e+03) (7, 1.50000000000000000000e+03) (8, 1.50000000000000000000e+03) (9, 1.50000000000000000000e+03) (10, 1.50000000000000000000e+03) (11, 1.50000000000000000000e+03) (12, 1.50000000000000000000e+03) (13, 1.50000000000000000000e+03) (14, 1.50000000000000000000e+03) (15, 1.50000000000000000000e+03) (16, 1.50000000000000000000e+03) (17, 1.50000000000000000000e+03) (18, 1.50000000000000000000e+03) (19, 1.50000000000000000000e+03) (20, 1.50000000000000000000e+03) (21, 1.50000000000000000000e+03) (22, 1.50000000000000000000e+03) (23, 1.50000000000000000000e+03) (24, 1.50000000000000000000e+03) (25, 1.50000000000000000000e+03) (26, 1.50000000000000000000e+03) (27, 1.50000000000000000000e+03) (28, 1.50000000000000000000e+03) (29, -1.50000000000000000000e+03) (30, -1.50000000000000000000e+03) (31, -1.50000000000000000000e+03) (32, -1.50000000000000000000e+03) (33, -1.50000000000000000000e+03) (34, -1.50000000000000000000e+03) (35, 1.50000000000000000000e+03) (36, 1.50000000000000000000e+03) (37, -1.50000000000000000000e+03) (38, -1.50000000000000000000e+03) (39, 1.50000000000000000000e+03) (40, 1.50000000000000000000e+03) (41, -1.50000000000000000000e+03) (42, -1.50000000000000000000e+03) (43, 1.50000000000000000000e+03) (44, 1.50000000000000000000e+03) (45, 1.50000000000000000000e+03) (46, 1.50000000000000000000e+03) (47, 1.50000000000000000000e+03) (48, 1.50000000000000000000e+03) (49, -1.50000000000000000000e+03) (50, -1.50000000000000000000e+03) (51, -1.50000000000000000000e+03) (52, -1.50000000000000000000e+03) (53, -1.50000000000000000000e+03) (54, -1.50000000000000000000e+03) (55, -1.50000000000000000000e+03) (56, -1.50000000000000000000e+03) (57, -1.50000000000000000000e+03) (58, -1.50000000000000000000e+03) (59, -1.50000000000000000000e+03) (60, -1.50000000000000000000e+03) (61, -1.50000000000000000000e+03) (62, 1.50000000000000000000e+03) (63, 1.50000000000000000000e+03) (64, 1.50000000000000000000e+03) (65, 1.50000000000000000000e+03) (66, 1.50000000000000000000e+03) (67, 1.50000000000000000000e+03) (68, 1.48500000000000000000e+03) (69, -1.49998327636718750000e+03) (70, 1.50000000000000000000e+03) (71, 1.50000000000000000000e+03) (72, 1.50000000000000000000e+03) (73, 1.50000000000000000000e+03) (74, 1.50000000000000000000e+03) (75, 1.50000000000000000000e+03) (76, 1.50000000000000000000e+03) (77, 1.50000000000000000000e+03) (78, 1.50000000000000000000e+03) (79, -1.50000000000000000000e+03) (80, -1.50000000000000000000e+03) (81, -1.50000000000000000000e+03) (82, -1.50000000000000000000e+03) (83, 1.50000000000000000000e+03) (84, 1.50000000000000000000e+03) (85, 1.50000000000000000000e+03) (86, 1.50000000000000000000e+03) (87, 1.50000000000000000000e+03) (88, 1.50000000000000000000e+03) (89, 1.50000000000000000000e+03) (90, 1.50000000000000000000e+03) (91, 1.50000000000000000000e+03) (92, -1.49848254394531250000e+03) (93, 1.50000000000000000000e+03) (94, 1.50000000000000000000e+03) (95, 1.50000000000000000000e+03) (96, 1.50000000000000000000e+03) (97, 1.50000000000000000000e+03) (98, 1.50000000000000000000e+03) (99, 1.50000000000000000000e+03) (100, 1.50000000000000000000e+03) (101, 1.50000000000000000000e+03) (102, 1.50000000000000000000e+03) (103, 1.50000000000000000000e+03) (104, 1.50000000000000000000e+03) (105, 1.50000000000000000000e+03) (106, 1.50000000000000000000e+03) (107, 1.50000000000000000000e+03) (108, 1.50000000000000000000e+03) (109, 1.50000000000000000000e+03) (110, 1.50000000000000000000e+03) (111, 1.50000000000000000000e+03) (112, 1.50000000000000000000e+03) (113, 1.50000000000000000000e+03) (114, 1.50000000000000000000e+03) (115, 1.50000000000000000000e+03) (116, 1.50000000000000000000e+03) (117, 1.50000000000000000000e+03) (118, 1.50000000000000000000e+03) (119, 1.50000000000000000000e+03) (120, 1.50000000000000000000e+03) (121, 1.50000000000000000000e+03) (122, 1.50000000000000000000e+03) (123, 1.50000000000000000000e+03) (124, 1.50000000000000000000e+03) (125, 1.50000000000000000000e+03) (126, 1.50000000000000000000e+03) (127, 1.50000000000000000000e+03) (128, 1.50000000000000000000e+03) (129, 1.50000000000000000000e+03) (130, 1.50000000000000000000e+03) (131, 1.50000000000000000000e+03) (132, 1.50000000000000000000e+03) (133, 1.50000000000000000000e+03) (134, 1.50000000000000000000e+03) (135, 1.50000000000000000000e+03) (136, 1.50000000000000000000e+03) (137, 1.50000000000000000000e+03) (138, 1.50000000000000000000e+03) (139, 1.50000000000000000000e+03) (140, 1.50000000000000000000e+03) (141, 1.50000000000000000000e+03) (142, 1.50000000000000000000e+03) (143, 1.50000000000000000000e+03) (144, 1.50000000000000000000e+03) (145, 1.50000000000000000000e+03) (146, 1.50000000000000000000e+03) (147, 1.50000000000000000000e+03) (148, 1.50000000000000000000e+03) (149, 1.50000000000000000000e+03) (150, 1.50000000000000000000e+03) (151, 1.50000000000000000000e+03) (152, 1.50000000000000000000e+03) (153, 1.50000000000000000000e+03) (154, 1.50000000000000000000e+03) (155, 1.50000000000000000000e+03) (156, 1.50000000000000000000e+03) (157, 1.50000000000000000000e+03) (158, 1.50000000000000000000e+03) (159, 1.50000000000000000000e+03) (160, 1.50000000000000000000e+03) (161, 1.50000000000000000000e+03) (162, 1.50000000000000000000e+03) (163, 1.50000000000000000000e+03) (164, 1.50000000000000000000e+03) (165, 1.50000000000000000000e+03) (166, 1.50000000000000000000e+03) (167, 1.50000000000000000000e+03) (168, 1.50000000000000000000e+03) (169, 1.50000000000000000000e+03) (170, 1.50000000000000000000e+03) (171, 1.50000000000000000000e+03) (172, 1.50000000000000000000e+03) (173, 1.50000000000000000000e+03) (174, 1.50000000000000000000e+03) (175, 1.50000000000000000000e+03) (176, 1.50000000000000000000e+03) (177, 1.50000000000000000000e+03) (178, 1.50000000000000000000e+03) (179, 1.50000000000000000000e+03) (180, 1.50000000000000000000e+03) (181, 1.50000000000000000000e+03) (182, 1.50000000000000000000e+03) (183, 1.50000000000000000000e+03) (184, 1.50000000000000000000e+03) (185, 1.50000000000000000000e+03) (186, 1.50000000000000000000e+03) (187, 1.50000000000000000000e+03) (188, 1.50000000000000000000e+03) (189, 1.50000000000000000000e+03) (190, 1.50000000000000000000e+03) (191, 1.50000000000000000000e+03) (192, 1.50000000000000000000e+03) (193, 1.50000000000000000000e+03) (194, 1.50000000000000000000e+03) (195, 1.50000000000000000000e+03) (196, 1.50000000000000000000e+03) (197, 1.50000000000000000000e+03) (198, 1.50000000000000000000e+03) (199, 1.50000000000000000000e+03) (200, 1.50000000000000000000e+03) (201, 1.50000000000000000000e+03) (202, 1.50000000000000000000e+03) (203, 1.50000000000000000000e+03) (204, 1.50000000000000000000e+03) (205, 1.50000000000000000000e+03) (206, 1.50000000000000000000e+03) (207, 1.50000000000000000000e+03) (208, 1.50000000000000000000e+03) (209, 1.50000000000000000000e+03) (210, 1.50000000000000000000e+03) (211, 1.50000000000000000000e+03) (212, 1.50000000000000000000e+03) (213, 1.50000000000000000000e+03) (214, 1.50000000000000000000e+03) (215, 1.50000000000000000000e+03) (216, 1.50000000000000000000e+03) (217, 1.50000000000000000000e+03) (218, 1.50000000000000000000e+03) (219, 1.50000000000000000000e+03) (220, 1.50000000000000000000e+03) (221, 1.50000000000000000000e+03) (222, 1.50000000000000000000e+03) (223, 1.50000000000000000000e+03) (224, 1.50000000000000000000e+03) (225, 1.50000000000000000000e+03) (226, 1.50000000000000000000e+03) (227, 1.50000000000000000000e+03) (228, 1.50000000000000000000e+03) (229, 1.50000000000000000000e+03) (230, 1.50000000000000000000e+03) (231, 1.50000000000000000000e+03) (232, 1.50000000000000000000e+03) (233, 1.50000000000000000000e+03) (234, 1.50000000000000000000e+03) (235, 1.50000000000000000000e+03) (236, 1.50000000000000000000e+03) (237, 1.50000000000000000000e+03) (238, 1.50000000000000000000e+03) (239, 1.50000000000000000000e+03) (240, 1.50000000000000000000e+03) (241, 1.50000000000000000000e+03) (242, 1.50000000000000000000e+03) (243, 1.50000000000000000000e+03) (244, 1.50000000000000000000e+03) (245, -1.50000000000000000000e+03) (246, -1.50000000000000000000e+03) (247, -1.50000000000000000000e+03) (248, -1.50000000000000000000e+03) (249, -1.50000000000000000000e+03) (250, -1.50000000000000000000e+03) (251, -1.50000000000000000000e+03) (252, -1.50000000000000000000e+03) (253, -1.50000000000000000000e+03) (254, -1.50000000000000000000e+03) (255, -1.50000000000000000000e+03) (256, -1.50000000000000000000e+03) (257, -1.50000000000000000000e+03) (258, -1.50000000000000000000e+03) (259, -1.50000000000000000000e+03) (260, -1.50000000000000000000e+03) (261, -1.50000000000000000000e+03) (262, -1.50000000000000000000e+03) (263, -1.50000000000000000000e+03) (264, -1.50000000000000000000e+03) (265, -1.50000000000000000000e+03) (266, -1.50000000000000000000e+03) (267, 1.50000000000000000000e+03) (268, 1.50000000000000000000e+03) (269, 1.50000000000000000000e+03) (270, 1.50000000000000000000e+03) (271, 1.50000000000000000000e+03) (272, 1.50000000000000000000e+03) (273, 1.50000000000000000000e+03) (274, 1.50000000000000000000e+03) (275, 1.50000000000000000000e+03) (276, 1.50000000000000000000e+03) (277, 1.50000000000000000000e+03) (278, -1.08341137695312500000e+03) (279, -1.50000000000000000000e+03) (280, -1.50000000000000000000e+03) (281, -1.50000000000000000000e+03) (282, -1.50000000000000000000e+03) (283, -1.50000000000000000000e+03) (284, -1.50000000000000000000e+03) (285, -1.50000000000000000000e+03) (286, -1.50000000000000000000e+03) (287, -1.50000000000000000000e+03) (288, -1.50000000000000000000e+03) (289, -1.50000000000000000000e+03) (290, -1.50000000000000000000e+03) (291, -1.50000000000000000000e+03) (292, -1.50000000000000000000e+03) (293, -1.50000000000000000000e+03) (294, -1.50000000000000000000e+03) (295, -1.50000000000000000000e+03) (296, -1.50000000000000000000e+03) (297, -1.50000000000000000000e+03) (298, -1.50000000000000000000e+03) (299, -1.50000000000000000000e+03) (300, -1.50000000000000000000e+03) (301, -1.50000000000000000000e+03) (302, -1.50000000000000000000e+03) (303, -1.50000000000000000000e+03) (304, -1.50000000000000000000e+03) (305, -1.50000000000000000000e+03) (306, -1.50000000000000000000e+03) (307, -1.50000000000000000000e+03) (308, -1.50000000000000000000e+03) (309, -1.50000000000000000000e+03) (310, -1.50000000000000000000e+03) (311, -1.50000000000000000000e+03) (312, -1.50000000000000000000e+03) (313, -1.50000000000000000000e+03) (314, -1.50000000000000000000e+03) (315, -1.50000000000000000000e+03) (316, -1.50000000000000000000e+03) (317, -1.50000000000000000000e+03) (318, -1.50000000000000000000e+03) (319, -1.50000000000000000000e+03) (320, -1.50000000000000000000e+03) (321, -1.50000000000000000000e+03) (322, -1.50000000000000000000e+03) (323, -1.50000000000000000000e+03) (324, -1.50000000000000000000e+03) (325, -1.50000000000000000000e+03) (326, -1.50000000000000000000e+03) (327, -1.50000000000000000000e+03) (328, -1.50000000000000000000e+03) (329, -1.50000000000000000000e+03) (330, -1.50000000000000000000e+03) (331, -1.50000000000000000000e+03) (332, -1.50000000000000000000e+03) (333, -1.50000000000000000000e+03) (334, -1.50000000000000000000e+03) (335, -1.50000000000000000000e+03) (336, -1.50000000000000000000e+03) (337, -1.50000000000000000000e+03) (338, -1.50000000000000000000e+03) (339, -1.50000000000000000000e+03) (340, -1.50000000000000000000e+03) (341, -1.50000000000000000000e+03) (342, -1.50000000000000000000e+03) (343, -1.50000000000000000000e+03) (344, -1.50000000000000000000e+03) (345, -1.50000000000000000000e+03) (346, -1.50000000000000000000e+03) (347, -1.50000000000000000000e+03) (348, -1.50000000000000000000e+03) (349, -1.50000000000000000000e+03) (350, -1.50000000000000000000e+03) (351, -1.50000000000000000000e+03) (352, -1.50000000000000000000e+03) (353, -1.50000000000000000000e+03) (354, -1.50000000000000000000e+03) (355, -1.50000000000000000000e+03) (356, -1.50000000000000000000e+03) (357, -1.50000000000000000000e+03) (358, -1.50000000000000000000e+03) (359, -1.50000000000000000000e+03) (360, -1.50000000000000000000e+03) (361, -1.50000000000000000000e+03) (362, -1.50000000000000000000e+03) (363, -1.50000000000000000000e+03) (364, -1.50000000000000000000e+03) (365, -1.50000000000000000000e+03) (366, -1.50000000000000000000e+03) (367, -1.50000000000000000000e+03) (368, -1.50000000000000000000e+03) (369, -1.50000000000000000000e+03) (370, -1.50000000000000000000e+03) (371, -1.50000000000000000000e+03) (372, -1.50000000000000000000e+03) (373, -1.50000000000000000000e+03) (374, -1.50000000000000000000e+03) (375, -1.50000000000000000000e+03) (376, -1.50000000000000000000e+03) (377, -1.50000000000000000000e+03) (378, -1.50000000000000000000e+03) (379, -1.50000000000000000000e+03) (380, -1.50000000000000000000e+03) (381, -1.50000000000000000000e+03) (382, -1.50000000000000000000e+03) (383, -1.50000000000000000000e+03) (384, -1.50000000000000000000e+03) (385, -1.50000000000000000000e+03) (386, -1.50000000000000000000e+03) (387, -1.50000000000000000000e+03) (388, -1.50000000000000000000e+03) (389, -1.50000000000000000000e+03) (390, -1.50000000000000000000e+03) (391, -3.40948059082031250000e+02) (392, 1.50000000000000000000e+03) (393, 1.50000000000000000000e+03) (394, 1.50000000000000000000e+03) (395, 1.50000000000000000000e+03) (396, 1.50000000000000000000e+03) (397, 1.50000000000000000000e+03) (398, 1.50000000000000000000e+03) (399, 1.50000000000000000000e+03) (400, 1.50000000000000000000e+03) (401, 1.50000000000000000000e+03) (402, 1.50000000000000000000e+03) (403, 1.50000000000000000000e+03) (404, 1.50000000000000000000e+03) (405, 1.50000000000000000000e+03) (406, 1.50000000000000000000e+03) (407, 1.50000000000000000000e+03) (408, 1.50000000000000000000e+03) (409, 1.50000000000000000000e+03) (410, 1.50000000000000000000e+03) (411, 1.50000000000000000000e+03) (412, 1.50000000000000000000e+03) (413, 1.50000000000000000000e+03) (414, 1.50000000000000000000e+03) (415, 1.50000000000000000000e+03) (416, 1.50000000000000000000e+03) (417, 1.50000000000000000000e+03) (418, 1.50000000000000000000e+03) (419, 1.50000000000000000000e+03) (420, 1.50000000000000000000e+03) (421, 1.50000000000000000000e+03) (422, 1.50000000000000000000e+03) (423, 1.50000000000000000000e+03) (424, 1.50000000000000000000e+03) (425, 1.50000000000000000000e+03) (426, 1.50000000000000000000e+03) (427, 1.50000000000000000000e+03) (428, 1.50000000000000000000e+03) (429, 1.50000000000000000000e+03) (430, 1.50000000000000000000e+03) (431, 1.50000000000000000000e+03) (432, 1.50000000000000000000e+03) (433, 1.50000000000000000000e+03) (434, 1.50000000000000000000e+03) (435, 1.50000000000000000000e+03) (436, 1.50000000000000000000e+03) (437, 1.50000000000000000000e+03) (438, 1.50000000000000000000e+03) (439, 1.50000000000000000000e+03) (440, 1.50000000000000000000e+03) (441, 1.50000000000000000000e+03) (442, 1.50000000000000000000e+03) (443, 1.50000000000000000000e+03) (444, 1.50000000000000000000e+03) (445, 1.50000000000000000000e+03) (446, 1.50000000000000000000e+03) (447, 1.50000000000000000000e+03) (448, 1.50000000000000000000e+03) (449, 1.50000000000000000000e+03) (450, 1.50000000000000000000e+03) (451, 1.50000000000000000000e+03) (452, 1.50000000000000000000e+03) (453, 1.50000000000000000000e+03) (454, 1.50000000000000000000e+03) (455, 1.50000000000000000000e+03) (456, 1.50000000000000000000e+03) (457, 1.50000000000000000000e+03) (458, 1.50000000000000000000e+03) (459, 1.50000000000000000000e+03) (460, 1.50000000000000000000e+03) (461, 1.50000000000000000000e+03) (462, 1.50000000000000000000e+03) (463, 1.50000000000000000000e+03) (464, 1.50000000000000000000e+03) (465, 1.50000000000000000000e+03) (466, 1.50000000000000000000e+03) (467, 1.50000000000000000000e+03) (468, 1.50000000000000000000e+03) (469, 1.50000000000000000000e+03) (470, 1.50000000000000000000e+03) (471, 1.50000000000000000000e+03) (472, 1.50000000000000000000e+03) (473, 1.50000000000000000000e+03) (474, 1.50000000000000000000e+03) (475, 1.50000000000000000000e+03) (476, 1.50000000000000000000e+03) (477, 1.50000000000000000000e+03) (478, 1.50000000000000000000e+03) (479, 1.50000000000000000000e+03) (480, 1.50000000000000000000e+03) (481, 1.50000000000000000000e+03) (482, 1.50000000000000000000e+03) (483, 1.50000000000000000000e+03) (484, 1.50000000000000000000e+03) (485, 1.50000000000000000000e+03) (486, 1.50000000000000000000e+03) (487, 1.50000000000000000000e+03) (488, 1.50000000000000000000e+03) (489, 1.50000000000000000000e+03) (490, 1.50000000000000000000e+03) (491, 1.50000000000000000000e+03) (492, 1.50000000000000000000e+03) (493, 1.50000000000000000000e+03) (494, 1.50000000000000000000e+03) (495, 1.48500000000000000000e+03) (496, 1.49131311035156250000e+03) (497, -9.08752624511718750000e+02) (498, -1.22426232910156250000e+03) (499, -1.43568054199218750000e+03) (500, -1.50000000000000000000e+03) (501, -1.50000000000000000000e+03) (502, -1.50000000000000000000e+03) (503, -1.50000000000000000000e+03) (504, -1.50000000000000000000e+03) (505, -1.50000000000000000000e+03) (506, -1.50000000000000000000e+03) (507, -1.50000000000000000000e+03) (508, -1.50000000000000000000e+03) (509, -1.50000000000000000000e+03) (510, -1.50000000000000000000e+03) (511, -1.50000000000000000000e+03) (512, -1.50000000000000000000e+03) (513, -1.50000000000000000000e+03) (514, -1.50000000000000000000e+03) (515, -1.50000000000000000000e+03) (516, -1.50000000000000000000e+03) (517, -1.50000000000000000000e+03) (518, -1.50000000000000000000e+03) (519, -1.50000000000000000000e+03) (520, -1.50000000000000000000e+03) (521, -1.50000000000000000000e+03) (522, -1.50000000000000000000e+03) (523, -1.50000000000000000000e+03) (524, -1.50000000000000000000e+03) (525, -1.50000000000000000000e+03) (526, -1.50000000000000000000e+03) (527, -1.50000000000000000000e+03) (528, -1.50000000000000000000e+03) (529, -1.50000000000000000000e+03) (530, -1.50000000000000000000e+03) (531, -1.50000000000000000000e+03) (532, -1.50000000000000000000e+03) (533, 1.44391296386718750000e+02) (534, 1.50000000000000000000e+03) (535, 1.50000000000000000000e+03) (536, 1.50000000000000000000e+03) (537, 1.50000000000000000000e+03) (538, 1.50000000000000000000e+03) (539, 1.50000000000000000000e+03) (540, 1.50000000000000000000e+03) (541, 1.50000000000000000000e+03) (542, 1.50000000000000000000e+03) (543, 1.50000000000000000000e+03) (544, 1.50000000000000000000e+03) (545, 1.50000000000000000000e+03) (546, 1.50000000000000000000e+03) (547, 1.50000000000000000000e+03) (548, 1.50000000000000000000e+03) (549, 1.50000000000000000000e+03) (550, 1.50000000000000000000e+03) (551, 1.50000000000000000000e+03) (552, 1.50000000000000000000e+03) (553, 1.50000000000000000000e+03) (554, 1.50000000000000000000e+03) (555, 1.50000000000000000000e+03) (556, 1.50000000000000000000e+03) (557, 1.50000000000000000000e+03) (558, 1.50000000000000000000e+03) (559, 1.50000000000000000000e+03) (560, 1.50000000000000000000e+03) (561, 1.50000000000000000000e+03) (562, 1.50000000000000000000e+03) (563, 1.50000000000000000000e+03) (564, 1.50000000000000000000e+03) (565, 1.50000000000000000000e+03) (566, 1.50000000000000000000e+03) (567, 1.50000000000000000000e+03) (568, 1.50000000000000000000e+03) (569, 1.50000000000000000000e+03) (570, 1.50000000000000000000e+03) (571, 1.50000000000000000000e+03) (572, 1.50000000000000000000e+03) (573, 1.50000000000000000000e+03) (574, 1.50000000000000000000e+03) (575, 1.50000000000000000000e+03) (576, 1.50000000000000000000e+03) (577, 1.50000000000000000000e+03) (578, 1.50000000000000000000e+03) (579, 1.50000000000000000000e+03) (580, 1.50000000000000000000e+03) (581, 1.50000000000000000000e+03) (582, 1.50000000000000000000e+03) (583, 1.50000000000000000000e+03) (584, 1.50000000000000000000e+03) (585, 1.50000000000000000000e+03) (586, 1.50000000000000000000e+03) (587, 1.50000000000000000000e+03) (588, 1.50000000000000000000e+03) (589, 1.50000000000000000000e+03) (590, 1.50000000000000000000e+03) (591, 1.48500000000000000000e+03) (592, -4.25308746337890625000e+02) (593, -1.33415051269531250000e+03) (594, -1.46816748046875000000e+03) (595, -1.50000000000000000000e+03) (596, -1.50000000000000000000e+03) (597, -1.50000000000000000000e+03) (598, -1.50000000000000000000e+03) (599, -1.50000000000000000000e+03) (600, -1.50000000000000000000e+03) (601, -1.50000000000000000000e+03) (602, -1.50000000000000000000e+03) (603, -1.50000000000000000000e+03) (604, -1.50000000000000000000e+03) (605, -1.50000000000000000000e+03) (606, -1.50000000000000000000e+03) (607, -1.50000000000000000000e+03) (608, -1.50000000000000000000e+03) (609, -1.46211352539062500000e+03) (610, 1.48500000000000000000e+03) (611, 1.50000000000000000000e+03) (612, 1.50000000000000000000e+03) (613, 1.50000000000000000000e+03) (614, 1.50000000000000000000e+03) (615, 1.50000000000000000000e+03) (616, 1.50000000000000000000e+03) (617, 1.50000000000000000000e+03) (618, 1.50000000000000000000e+03) (619, 1.50000000000000000000e+03) (620, 1.50000000000000000000e+03) (621, 1.50000000000000000000e+03) (622, 1.50000000000000000000e+03) (623, 1.50000000000000000000e+03) (624, 1.50000000000000000000e+03) (625, 1.50000000000000000000e+03) (626, 1.50000000000000000000e+03) (627, 1.50000000000000000000e+03) (628, 1.50000000000000000000e+03) (629, 1.50000000000000000000e+03) (630, 1.50000000000000000000e+03) (631, 1.50000000000000000000e+03) (632, 1.50000000000000000000e+03) (633, 1.50000000000000000000e+03) (634, 1.50000000000000000000e+03) (635, 1.50000000000000000000e+03) (636, 1.50000000000000000000e+03) (637, 1.50000000000000000000e+03) (638, 1.50000000000000000000e+03) (639, 1.50000000000000000000e+03) (640, 1.50000000000000000000e+03) (641, 1.50000000000000000000e+03) (642, 1.50000000000000000000e+03) (643, 1.50000000000000000000e+03) (644, 1.50000000000000000000e+03) (645, 1.50000000000000000000e+03) (646, 1.50000000000000000000e+03) (647, 1.50000000000000000000e+03) (648, 1.50000000000000000000e+03) (649, 1.50000000000000000000e+03) (650, 1.50000000000000000000e+03) (651, 1.50000000000000000000e+03) (652, 1.50000000000000000000e+03) (653, 1.50000000000000000000e+03) (654, 1.50000000000000000000e+03) (655, 1.50000000000000000000e+03) (656, 1.50000000000000000000e+03) (657, 1.50000000000000000000e+03) (658, 1.50000000000000000000e+03) (659, 1.50000000000000000000e+03) (660, 1.50000000000000000000e+03) (661, 1.50000000000000000000e+03) (662, 1.50000000000000000000e+03) (663, 1.50000000000000000000e+03) (664, 1.50000000000000000000e+03) (665, 1.50000000000000000000e+03) (666, 1.50000000000000000000e+03) (667, 1.50000000000000000000e+03) (668, 1.50000000000000000000e+03) (669, 1.50000000000000000000e+03) (670, 1.50000000000000000000e+03) (671, 1.50000000000000000000e+03) (672, 1.50000000000000000000e+03) (673, 1.50000000000000000000e+03) (674, 1.50000000000000000000e+03) (675, 1.50000000000000000000e+03) (676, 1.50000000000000000000e+03) (677, 1.50000000000000000000e+03) (678, 1.50000000000000000000e+03) (679, 1.50000000000000000000e+03) (680, 1.50000000000000000000e+03) (681, 1.50000000000000000000e+03) (682, 1.50000000000000000000e+03) (683, 1.50000000000000000000e+03) (684, 1.50000000000000000000e+03) (685, 1.50000000000000000000e+03) (686, 1.50000000000000000000e+03) (687, 1.50000000000000000000e+03) (688, 1.50000000000000000000e+03) (689, 1.50000000000000000000e+03) (690, 1.50000000000000000000e+03) (691, 1.50000000000000000000e+03) (692, 1.50000000000000000000e+03) (693, 1.50000000000000000000e+03) (694, 1.50000000000000000000e+03) (695, 1.50000000000000000000e+03) (696, 1.50000000000000000000e+03) (697, 1.50000000000000000000e+03) (698, 1.50000000000000000000e+03) (699, 1.50000000000000000000e+03) (700, 1.50000000000000000000e+03) (701, 1.50000000000000000000e+03) (702, 1.50000000000000000000e+03) (703, 1.50000000000000000000e+03) (704, 1.50000000000000000000e+03) (705, 1.50000000000000000000e+03) (706, 1.50000000000000000000e+03) (707, 1.50000000000000000000e+03) (708, 1.50000000000000000000e+03) (709, 1.50000000000000000000e+03) (710, 1.50000000000000000000e+03) (711, 1.50000000000000000000e+03) (712, 1.50000000000000000000e+03) (713, 1.50000000000000000000e+03) (714, 1.50000000000000000000e+03) (715, 1.50000000000000000000e+03) (716, 1.50000000000000000000e+03) (717, 1.50000000000000000000e+03) (718, 1.50000000000000000000e+03) (719, 1.50000000000000000000e+03) (720, 1.50000000000000000000e+03) (721, 1.50000000000000000000e+03) (722, 1.50000000000000000000e+03) (723, 1.50000000000000000000e+03) (724, 1.50000000000000000000e+03) (725, 1.50000000000000000000e+03) (726, 1.50000000000000000000e+03) (727, 1.50000000000000000000e+03) (728, 1.50000000000000000000e+03) (729, 1.50000000000000000000e+03) (730, 1.50000000000000000000e+03) (731, 1.50000000000000000000e+03) (732, 1.50000000000000000000e+03) (733, 1.50000000000000000000e+03) (734, 1.50000000000000000000e+03) (735, 1.50000000000000000000e+03) (736, 1.50000000000000000000e+03) (737, 1.50000000000000000000e+03) (738, 1.50000000000000000000e+03) (739, 1.50000000000000000000e+03) (740, 1.50000000000000000000e+03) (741, 1.50000000000000000000e+03) (742, 1.50000000000000000000e+03) (743, 1.50000000000000000000e+03) (744, 1.50000000000000000000e+03) (745, 1.50000000000000000000e+03) (746, 1.50000000000000000000e+03) (747, 1.50000000000000000000e+03) (748, 1.50000000000000000000e+03) (749, 1.50000000000000000000e+03) (750, 1.50000000000000000000e+03) (751, 1.50000000000000000000e+03) (752, 1.50000000000000000000e+03) (753, 1.50000000000000000000e+03) (754, 1.50000000000000000000e+03) (755, 1.50000000000000000000e+03) (756, 1.50000000000000000000e+03) (757, 1.50000000000000000000e+03) (758, 1.50000000000000000000e+03) (759, 3.53951907157897949219e+00) (0, 1.17189340591430664062e+01) (1, 4.89964218139648437500e+01) (2, 3.72483372688293457031e+00) (3, 1.68859159946441650391e+00) (4, 2.15906620025634765625e+00) (5, 5.92248678207397460938e+00) (6, -2.37818870544433593750e+01) (7, -1.89524612426757812500e+01) (8, 1.06937265396118164062e+00) (9, 2.15596008300781250000e+01) (10, 5.63960742950439453125e+00) (11, -4.68023262023925781250e+01) (12, -7.82971525192260742188e+00) (13, -3.36078858375549316406e+00) (14, 1.25110101699829101562e+01) (15, -2.66395807266235351562e+00) (16, 7.03769922256469726562e+00) (17, -8.90852165222167968750e+00) (18, -4.05768585205078125000e+01) (19, 1.19705219268798828125e+01) (20, 1.04764183044433593750e+02) (21, -2.12329912185668945312e+00) (22, 2.00409812927246093750e+01) (23, 6.11658020019531250000e+01) (24, -5.76937794685363769531e-01) (25, -2.35545959472656250000e+01) (26, 1.86107406616210937500e+01) (27, -6.86690092086791992188e-01) (28, -4.27754287719726562500e+01) (29, 4.54194355010986328125e+00) (30, 9.55328369140625000000e+01) (31, 8.98168659210205078125e+00) (32, -2.00091695785522460938e+00) (33, -2.04999237060546875000e+01) (34, 3.55318107604980468750e+01) (35, 3.18244857788085937500e+01) (36, 1.49335060119628906250e+01) (37, 6.94372558593750000000e+00) (38, 1.40284652709960937500e+01) (39, -4.10300874710083007812e+00) (40, 4.25394439697265625000e+01) (41, -7.86812019348144531250e+00) (42, -3.02205123901367187500e+01) (43, -1.47477884292602539062e+01) (44, 4.79941787719726562500e+01) (45, 2.05852642059326171875e+01) (46, -1.58466243743896484375e+01) (47, -1.71245632171630859375e+01) (48, 6.11941299438476562500e+01) (49, -3.55575332641601562500e+01) (50, -4.01499223709106445312e+00) (51, 3.69814987182617187500e+01) (52, 2.84682312011718750000e+01) (53, 1.31327712535858154297e+00) (54, 6.92854404449462890625e-01) (55, -5.76142692565917968750e+00) (56, 3.55433044433593750000e+01) (57, 8.99518127441406250000e+01) (58, 9.00403213500976562500e+00) (59, 1.14205112457275390625e+01) (60, 9.65237655639648437500e+01) (61, 3.45492515563964843750e+01) (62, -2.57051296234130859375e+01) (63, -8.87727928161621093750e+00) (64, 1.99539709091186523438e+00) (65, -2.06713175773620605469e+00) (66, 2.52082049846649169922e-01) (67, -5.72915554046630859375e+00) (68, -9.82721328735351562500e+01) (69, -1.14257459640502929688e+01) (70, 2.43045544624328613281e+00) (71, 2.96844367980957031250e+01) (72, 1.88217498779296875000e+02) (73, 1.46924996376037597656e+00) (74, 9.12281131744384765625e+00) (75, -1.54155838489532470703e+00) (76, -1.49386715888977050781e+00) (77, -1.20542755126953125000e+02) (78, -3.72318959236145019531e+00) (79, 2.16646327972412109375e+01) (80, 1.92751678466796875000e+02) (81, 3.13171253204345703125e+01) (82, 3.16685409545898437500e+01) (83, 2.05953574180603027344e+00) (84, 3.50267577171325683594e+00) (85, 1.31758804321289062500e+01) (86, -1.05739510059356689453e+00) (87, -1.61226634979248046875e+01) (88, 9.62624359130859375000e+00) (89, 2.23184432983398437500e+01) (90, 4.17508220672607421875e+00) (91, -5.62768936157226562500e+01) (92, -1.23606538772583007812e+01) (93, 6.36947965621948242188e+00) (94, 3.81673698425292968750e+01) (95, 6.70340967178344726562e+00) (96, 2.30044507980346679688e+00) (97, -1.02236557006835937500e+00) (98, 5.60589313507080078125e+00) (99, 1.18659172058105468750e+01) (100, -6.12634563446044921875e+00) (101, -3.41403675079345703125e+00) (102, -4.96145868301391601562e+00) (103, 2.62572646141052246094e+00) (104, 1.37776112556457519531e+00) (105, 7.80527305603027343750e+00) (106, 3.03467388153076171875e+01) (107, 3.41843986511230468750e+00) (108, 5.12600541114807128906e-01) (109, 1.02362012863159179688e+00) (110, -4.62912559509277343750e+00) (111, -4.83320884704589843750e+01) (112, -1.25470275878906250000e+01) (113, 3.22140789031982421875e+00) (114, 4.07390785217285156250e+01) (115, 9.13727855682373046875e+00) (116, 4.97695398330688476562e+00) (117, 1.80678987503051757812e+00) (118, 5.58488178253173828125e+00) (119, 1.14498758316040039062e+01) (120, -9.32825088500976562500e+00) (121, -7.26149988174438476562e+00) (122, 1.68347942829132080078e+00) (123, 8.40895938873291015625e+00) (124, 1.54016532897949218750e+01) (125, 1.56691856384277343750e+01) (126, -5.90022802352905273438e-01) (127, 1.58028054237365722656e+00) (128, 8.61196327209472656250e+00) (129, 3.44912719726562500000e+00) (130, 5.13319282531738281250e+01) (131, 1.24278964996337890625e+01) (132, 1.28003191947937011719e+00) (133, -5.45008087158203125000e+00) (134, -2.74161052703857421875e+01) (135, -2.53904151916503906250e+01) (136, -4.92465066909790039062e+00) (137, -8.08874225616455078125e+00) (138, -4.98994159698486328125e+00) (139, 4.75318861007690429688e+00) (140, 2.04728460311889648438e+00) (141, -7.01127147674560546875e+00) (142, 4.89918279647827148438e+00) (143, 6.20756721496582031250e+00) (144, 3.55985689163208007812e+00) (145, 2.53570675849914550781e+00) (146, 1.70721549987792968750e+01) (147, 3.24268788099288940430e-01) (148, 7.61838531494140625000e+00) (149, -2.77852034568786621094e+00) (150, -1.55032100677490234375e+01) (151, -1.65236699581146240234e+00) (152, -5.19573926925659179688e+00) (153, -4.35286474227905273438e+00) (154, -3.65735435485839843750e+00) (155, -2.91166267395019531250e+01) (156, 2.47379994392395019531e+00) (157, 1.27369527816772460938e+01) (158, -1.49740934371948242188e+00) (159, -1.05998861789703369141e+00) (160, -2.78238410949707031250e+01) (161, -8.77142250537872314453e-01) (162, -3.19118410348892211914e-01) (163, 7.40120053291320800781e-01) (164, 1.61135311126708984375e+01) (165, 6.34218597412109375000e+00) (166, 2.35154342651367187500e+00) (167, 1.01431684494018554688e+01) (168, 2.19298505783081054688e+00) (169, 5.81633615493774414062e+00) (170, 2.82914619445800781250e+01) (171, 5.77406597137451171875e+00) (172, 5.57067489624023437500e+00) (173, 1.24553215503692626953e+00) (174, -1.48696756362915039062e+01) (175, -2.57599048614501953125e+01) (176, -1.05536689758300781250e+01) (177, -1.49559295177459716797e+00) (178, -3.92880153656005859375e+00) (179, -5.57724905014038085938e+00) (180, 2.57418966293334960938e+00) (181, 2.58000850677490234375e-01) (182, -1.66272222995758056641e+00) (183, -1.00894060134887695312e+01) (184, 8.89612674713134765625e-01) (185, 6.28402411937713623047e-01) (186, -2.86964950561523437500e+01) (187, -5.51355743408203125000e+00) (188, 2.52917265892028808594e+00) (189, 1.54424114227294921875e+01) (190, 3.84843921661376953125e+00) (191, 1.36917352676391601562e+01) (192, 2.59168052673339843750e+00) (193, 1.08728611469268798828e+00) (194, 1.27552890777587890625e+00) (195, 6.38253986835479736328e-01) (196, -4.63242101669311523438e+00) (197, -1.86231350898742675781e+00) (198, -3.25418739318847656250e+01) (199, -5.65960025787353515625e+00) (200, -2.29666352272033691406e+00) (201, 2.28151988983154296875e+00) (202, 6.95356988906860351562e+00) (203, 2.14224834442138671875e+01) (204, 2.36720199584960937500e+01) (205, 4.14614534378051757812e+00) (206, 8.91365051269531250000e+00) (207, 2.11178073883056640625e+01) (208, 3.60451173782348632812e+00) (209, 1.76351472735404968262e-01) (210, -1.00196371078491210938e+01) (211, -5.96809101104736328125e+00) (212, -9.18468284606933593750e+00) (213, -1.72310337424278259277e-01) (214, 9.23321127891540527344e-01) (215, 1.53167736530303955078e+00) (216, 3.63209581375122070312e+00) (217, 3.02916216850280761719e+00) (218, 1.52839601039886474609e+00) (219, -7.83765602111816406250e+00) (220, -9.24946594238281250000e+00) (221, -3.90942502021789550781e+00) (222, -5.39679765701293945312e+00) (223, 2.43914771080017089844e+00) (224, 2.00876789093017578125e+01) (225, 1.41576976776123046875e+01) (226, 7.69808721542358398438e+00) (227, 5.49515295028686523438e+00) (228, 1.85948717594146728516e+00) (229, -5.97361922264099121094e-01) (230, -9.03982996940612792969e-01) (231, -7.02444255352020263672e-01) (232, -1.31163654327392578125e+01) (233, 2.81254410743713378906e-01) (234, -1.76582088470458984375e+01) (235, -3.91663265228271484375e+00) (236, -6.52222013473510742188e+00) (237, -1.52386057376861572266e+00) (238, 3.52321720123291015625e+00) (239, 3.21240329742431640625e+00) (240, 3.00168724060058593750e+01) (241, -1.88612163066864013672e+00) (242, -3.18854522705078125000e+00) (243, -2.06756324768066406250e+01) (244, -4.95947418212890625000e+01) (245, -2.21561861038208007812e+00) (246, -4.47196483612060546875e-01) (247, -1.23708176612854003906e+00) (248, -5.92051792144775390625e+00) (249, -4.50654754638671875000e+01) (250, -1.04757575988769531250e+01) (251, -5.29796203613281250000e+02) (252, -6.49758338928222656250e+00) (253, -1.79320704936981201172e+00) (254, -1.02656982421875000000e+02) (255, -2.92741947174072265625e+01) (256, -1.33899250030517578125e+01) (257, -4.37476348876953125000e+01) (258, -1.86533828735351562500e+02) (259, -2.75426177978515625000e+02) (260, -3.98070871829986572266e-01) (261, 3.55760663747787475586e-01) (262, -1.75657486915588378906e+00) (263, -7.99858856201171875000e+01) (264, -3.73919342041015625000e+02) (265, -6.29718246459960937500e+01) (266, -1.01618909835815429688e+01) (267, -1.40675872564315795898e-01) (268, -1.07380828857421875000e+01) (269, -6.88160371780395507812e+00) (270, -1.62401790618896484375e+01) (271, -9.25019607543945312500e+01) (272, -1.62952713012695312500e+02) (273, -1.53446487426757812500e+02) (274, -8.29683971405029296875e+00) (275, -5.81260740756988525391e-01) (276, -7.85911083221435546875e+00) (277, -6.32817687988281250000e+01) (278, -8.22946472167968750000e+01) (279, -3.57294769287109375000e+01) (280, -4.01997528076171875000e+01) (281, -1.28530673980712890625e+01) (282, -2.02364074707031250000e+02) (283, -4.16508598327636718750e+01) (284, -1.94708236694335937500e+02) (285, -6.72311782836914062500e+01) (286, -4.68797988891601562500e+01) (287, -3.51785774230957031250e+01) (288, -9.46087455749511718750e+00) (289, -4.59064054489135742188e+00) (290, -1.52690541744232177734e+00) (291, -1.75041627883911132812e+00) (292, -4.34282720088958740234e-01) (293, 2.09067440032958984375e+00) (294, 7.56545782089233398438e+00) (295, 4.59509277343750000000e+00) (296, 8.97714424133300781250e+00) (297, 1.32012920379638671875e+01) (298, 2.44485721588134765625e+01) (299, 2.01553230285644531250e+01) (300, 1.13964584350585937500e+02) (301, 4.08736541748046875000e+02) (302, 5.93972358703613281250e+01) (303, 3.07525756835937500000e+02) (304, 5.17908973693847656250e+01) (305, 6.96629409790039062500e+01) (306, 1.28072881698608398438e+01) (307, 3.87009849548339843750e+01) (308, 5.24660682678222656250e+01) (309, 1.70860168457031250000e+02) (310, 7.33848648071289062500e+01) (311, 7.90009689331054687500e+01) (312, 1.74238300323486328125e+01) (313, 6.79862403869628906250e+00) (314, 6.16900730133056640625e+00) (315, 1.72567558288574218750e+01) (316, 2.92862396240234375000e+01) (317, 1.70498943328857421875e+00) (318, 1.91599309444427490234e+00) (319, 1.07194578647613525391e+00) (320, 6.99317991733551025391e-01) (321, -1.14774703979492187500e+00) (322, 2.62448787689208984375e-01) (323, 1.56129157543182373047e+00) (324, 2.13491010665893554688e+00) (325, 1.10640573501586914062e+00) (326, 4.82863098382949829102e-01) (327, 1.46788787841796875000e+00) (328, 3.85091185569763183594e-01) (329, 1.41729617118835449219e+00) (330, 1.40793347358703613281e+00) (331, -2.73740679025650024414e-01) (332, -8.72734725475311279297e-01) (333, -1.12799215316772460938e+01) (334, -2.58728599548339843750e+00) (335, -1.96383368968963623047e+00) (336, -2.28588175773620605469e+00) (337, 7.77251780033111572266e-01) (338, 8.99583160877227783203e-01) (339, 1.42191815376281738281e+00) (340, 1.46449840068817138672e+00) (341, 2.67281818389892578125e+00) (342, 3.68882679939270019531e+00) (343, 5.55767631530761718750e+00) (344, 8.33639526367187500000e+00) (345, 1.06575880050659179688e+01) (346, 7.57203340530395507812e+00) (347, 1.52655925750732421875e+01) (348, 2.46573696136474609375e+01) (349, 3.43809700012207031250e+01) (350, 3.47592124938964843750e+01) (351, 8.81676769256591796875e+00) (352, 5.92338848114013671875e+00) (353, 7.16959762573242187500e+00) (354, 4.35384225845336914062e+00) (355, 1.56231272220611572266e+00) (356, 1.16483235359191894531e+00) (357, -2.18970417976379394531e+00) (358, -8.66583538055419921875e+00) (359, -4.10689582824707031250e+01) (360, -1.74620800018310546875e+01) (361, -1.14518833160400390625e+00) (362, -4.07279342412948608398e-01) (363, 2.39912581443786621094e+00) (364, 2.20768952369689941406e+00) (365, 1.08724784851074218750e+00) (366, 2.56080317497253417969e+00) (367, 2.67496562004089355469e+00) (368, 1.45142221450805664062e+00) (369, 2.02735185623168945312e+00) (370, 4.04118835926055908203e-01) (371, 1.57936620712280273438e+00) (372, 8.68933856487274169922e-01) (373, 1.14532017707824707031e+00) (374, 2.40026757121086120605e-01) (375, 1.24661183357238769531e+00) (376, 4.74195063114166259766e-01) (377, -1.34801179170608520508e-01) (378, 1.13079631328582763672e+00) (379, 6.66044771671295166016e-01) (380, 3.93148839473724365234e-01) (381, 1.28497552871704101562e+00) (382, 5.56304395198822021484e-01) (383, 1.07929563522338867188e+00) (384, 5.08147478103637695312e-02) (385, 1.08191859722137451172e+00) (386, 3.09529566764831542969e+00) (387, 5.48961257934570312500e+01) (388, 2.29279446601867675781e+00) (389, 2.96846604347229003906e+00) (390, 1.76129698753356933594e+00) (391, -6.63902342319488525391e-01) (392, -2.13000774383544921875e+00) (393, -1.52283296585083007812e+01) (394, -1.46810026168823242188e+01) (395, -3.54621315002441406250e+01) (396, -2.06777324676513671875e+01) (397, -5.31389236450195312500e+00) (398, -4.49803876876831054688e+00) (399, -6.92099523544311523438e+00) (400, -5.23773765563964843750e+00) (401, -4.62096881866455078125e+00) (402, -3.54923939704895019531e+00) (403, -2.25000286102294921875e+00) (404, 3.44562113285064697266e-01) (405, 8.20917427539825439453e-01) (406, -4.51102674007415771484e-01) (407, 2.45748773217201232910e-01) (408, -3.55013966560363769531e-01) (409, -2.70705938339233398438e+00) (410, -5.28083038330078125000e+00) (411, -9.07880878448486328125e+00) (412, -6.13175849914550781250e+01) (413, -4.26485671997070312500e+01) (414, -8.80612468719482421875e+00) (415, -8.27525138854980468750e+00) (416, -4.39075088500976562500e+00) (417, -2.66214132308959960938e+00) (418, -2.20209097862243652344e+00) (419, -1.40116786956787109375e+00) (420, -1.30544555187225341797e+00) (421, -1.36860764026641845703e+00) (422, -6.77289187908172607422e-01) (423, -1.65878129005432128906e+00) (424, -1.54942166805267333984e+00) (425, 3.15909206867218017578e-01) (426, 1.11808508634567260742e-01) (427, 3.78974378108978271484e-01) (428, 9.02346491813659667969e-01) (429, 1.00645661354064941406e-01) (430, 1.92413818836212158203e+00) (431, 3.48593974113464355469e+00) (432, 3.97206950187683105469e+00) (433, 4.00500327348709106445e-01) (434, 2.94057154655456542969e+00) (435, 2.75380998849868774414e-01) (436, 8.52317094802856445312e-01) (437, 4.73135948181152343750e-01) (438, 1.26778590679168701172e+00) (439, 1.20999693870544433594e+00) (440, 5.05614340305328369141e-01) (441, -8.06566253304481506348e-02) (442, 1.05686879158020019531e+00) (443, 3.58308613300323486328e-01) (444, -4.47801142930984497070e-01) (445, 5.60152769088745117188e-01) (446, 4.58271235227584838867e-01) (447, 1.46633490920066833496e-01) (448, 1.49383068084716796875e+00) (449, -2.28725653141736984253e-02) (450, 1.13157236576080322266e+00) (451, -1.52752533555030822754e-01) (452, 1.35471001267433166504e-02) (453, 3.33510756492614746094e-01) (454, 1.32345592975616455078e+00) (455, -2.10584461688995361328e-01) (456, -3.24820160865783691406e-01) (457, -6.09648704528808593750e-01) (458, -1.51425436139106750488e-01) (459, -2.77360469102859497070e-01) (460, 1.93578332662582397461e-01) (461, 5.35825304687023162842e-02) (462, -5.52195727825164794922e-01) (463, -1.62764176726341247559e-01) (464, 2.51039534807205200195e-01) (465, -1.49693330749869346619e-02) (466, 1.19375333189964294434e-01) (467, 1.02515900135040283203e+00) (468, 1.00315070152282714844e+00) (469, -6.02037794888019561768e-02) (470, 9.05539870262145996094e-01) (471, 1.53965592384338378906e-01) (472, 4.19313430786132812500e-01) (473, 3.32379579544067382812e-01) (474, 7.30099916458129882812e-01) (475, 3.40683966875076293945e-01) (476, -1.43899524211883544922e+00) (477, -3.35726404190063476562e+00) (478, -4.30554103851318359375e+00) (479, -4.14458465576171875000e+00) (480, -2.62133240699768066406e+00) (481, -1.12034010887145996094e+00) (482, -5.59760630130767822266e-01) (483, -8.61269652843475341797e-01) (484, -2.92506545782089233398e-01) (485, -9.84293878078460693359e-01) (486, 6.19039237499237060547e-01) (487, 6.36419475078582763672e-01) (488, -2.89170537143945693970e-02) (489, -1.53548326343297958374e-02) (490, -2.97525346279144287109e-01) (491, 1.28267002105712890625e+00) (492, 1.08721876144409179688e+00) (493, 1.43673941493034362793e-01) (494, 1.67366012930870056152e-01) (495, 2.72480428218841552734e-01) (496, 1.07946419715881347656e+00) (497, 1.41811156272888183594e+00) (498, 4.56335723400115966797e-01) (499, 1.17605280876159667969e+00) (500, 2.22342085838317871094e+00) (501, 2.10533738136291503906e+00) (502, 1.89291238784790039062e+00) (503, 1.01590740680694580078e+00) (504, 8.40912699699401855469e-01) (505, 1.18368995189666748047e+00) (506, 1.57561033964157104492e-01) (507, 6.07172489166259765625e-01) (508, -3.00336122512817382812e-01) (509, 3.78304906189441680908e-02) (510, 5.66629528999328613281e-01) (511, 8.79911363124847412109e-01) (512, -2.33441799879074096680e-01) (513, 1.38363337516784667969e+00) (514, 1.26145637035369873047e+00) (515, 4.69922661781311035156e-01) (516, 1.60682046413421630859e+00) (517, 1.22474801540374755859e+00) (518, 2.37390562891960144043e-01) (519, 5.23830056190490722656e-01) (520, -1.09308466315269470215e-01) (521, 5.22784233093261718750e-01) (522, 3.92421931028366088867e-01) (523, 1.58670485019683837891e+00) (524, 1.22748172283172607422e+00) (525, 1.42253088951110839844e+00) (526, 5.18461048603057861328e-01) (527, 3.97045612335205078125e-01) (528, 3.87772291898727416992e-01) (529, 4.23091053962707519531e-01) (530, 1.47310543060302734375e+00) (531, 1.09042137861251831055e-01) (532, -4.27518784999847412109e-02) (533, 9.79010045528411865234e-01) (534, 1.08727920055389404297e+00) (535, 8.36245536804199218750e-01) (536, 3.72534453868865966797e-01) (537, 1.55412924289703369141e+00) (538, -5.74101626873016357422e-01) (539, -2.91164159774780273438e-01) (540, -1.42215454578399658203e+00) (541, -6.33894264698028564453e-01) (542, -1.83002054691314697266e+00) (543, -7.30361747741699218750e+00) (544, -9.00943946838378906250e+00) (545, -1.30538024902343750000e+01) (546, -4.55752432346343994141e-01) (547, -3.36036714725196361542e-03) (548, 7.13339567184448242188e-01) (549, -7.80647993087768554688e-01) (550, 9.39286291599273681641e-01) (551, 4.58192586898803710938e-01) (552, -8.56896698474884033203e-01) (553, -1.52131772041320800781e+00) (554, -1.63985514640808105469e+00) (555, -3.00385904312133789062e+00) (556, -1.22875576019287109375e+01) (557, -2.48136959075927734375e+01) (558, -9.92923641204833984375e+00) (559, -5.10384130477905273438e+00) (560, -3.50475382804870605469e+00) (561, -2.58955955505371093750e+00) (562, 3.76112848520278930664e-01) (563, 1.24300611019134521484e+00) (564, 1.04444932937622070312e+00) (565, 2.75513911247253417969e+00) (566, 7.15156364440917968750e+00) (567, 6.45582342147827148438e+00) (568, 6.23828840255737304688e+00) (569, 3.72766571044921875000e+01) (570, 1.11364002227783203125e+01) (571, 6.34450340270996093750e+00) (572, 3.57926082611083984375e+00) (573, 1.04168701171875000000e+01) (574, 4.42663269042968750000e+01) (575, 2.07413177490234375000e+01) (576, 1.05012741088867187500e+01) (577, 5.76738452911376953125e+00) (578, 4.53585052490234375000e+00) (579, 2.00699090957641601562e+00) (580, 2.69593334197998046875e+00) (581, 1.83935534954071044922e+00) (582, 3.32537293434143066406e+00) (583, 1.78251338005065917969e+00) (584, 1.86637151241302490234e+00) (585, 1.89111816883087158203e+00) (586, 2.10848236083984375000e+00) (587, 1.61747682094573974609e+00) (588, 2.41348671913146972656e+00) (589, 5.45860815048217773438e+00) (590, 1.38805236816406250000e+01) (591, 1.38119249343872070312e+01) (592, 5.28851509094238281250e+00) (593, 5.59130525588989257812e+00) (594, 5.06794357299804687500e+01) (595, 3.50712847709655761719e+00) (596, 2.34036564826965332031e+00) (597, 1.43957865238189697266e+00) (598, 1.80948913097381591797e+00) (599, 2.74364566802978515625e+00) (600, 3.51535725593566894531e+00) (601, 5.69005727767944335938e+00) (602, 1.60523109436035156250e+01) (603, 2.56924476623535156250e+01) (604, 3.51947441101074218750e+01) (605, 6.05484294891357421875e+00) (606, 3.20865154266357421875e+00) (607, 1.10861384868621826172e+00) (608, 1.76421463489532470703e+00) (609, 1.59366321563720703125e+00) (610, 4.90457773208618164062e-01) (611, 1.06481456756591796875e+00) (612, 1.38635945320129394531e+00) (613, 1.60328209400177001953e+00) (614, 1.04659759998321533203e+00) (615, -5.33808290958404541016e-01) (616, -1.02951280772686004639e-01) (617, -8.21531295776367187500e-01) (618, -9.42043006420135498047e-01) (619, -3.94860833883285522461e-01) (620, -3.70652794837951660156e-01) (621, 4.66634407639503479004e-02) (622, -1.54332435131072998047e+00) (623, -1.80736589431762695312e+00) (624, -1.13806211948394775391e+00) (625, -3.69491314888000488281e+00) (626, -1.56582713127136230469e+00) (627, -5.04480504989624023438e+00) (628, -2.26730465888977050781e+00) (629, -3.53027272224426269531e+00) (630, -1.94767808914184570312e+00) (631, -4.15149402618408203125e+00) (632, -2.21988391876220703125e+00) (633, -2.32560348510742187500e+00) (634, -1.75669801235198974609e+00) (635, -2.20033574104309082031e+00) (636, -2.73525810241699218750e+00) (637, -2.70741629600524902344e+00) (638, -1.66498863697052001953e+00) (639, -1.78407227993011474609e+00) (640, -2.58635568618774414062e+00) (641, -2.79966759681701660156e+00) (642, -4.06538724899291992188e+00) (643, -3.25880289077758789062e+00) (644, -4.43790531158447265625e+00) (645, -2.48256325721740722656e+00) (646, -3.36874580383300781250e+00) (647, -2.77814340591430664062e+00) (648, -4.17552852630615234375e+00) (649, -6.77074623107910156250e+00) (650, -3.03517699241638183594e+00) (651, -2.71219491958618164062e+00) (652, -2.57739830017089843750e+00) (653, -1.59971308708190917969e+00) (654, -2.56649518013000488281e+00) (655, -2.93616199493408203125e+00) (656, -2.96595764160156250000e+00) (657, -1.88549196720123291016e+00) (658, -1.65068709850311279297e+00) (659, -1.81442368030548095703e+00) (660, -1.98854756355285644531e+00) (661, -1.60155653953552246094e+00) (662, -8.85749757289886474609e-01) (663, 1.03134787082672119141e+00) (664, 1.35548985004425048828e+00) (665, 5.70366121828556060791e-02) (666, 3.24058711528778076172e-01) (667, -1.09053003787994384766e+00) (668, -3.85111594200134277344e+00) (669, -9.25778770446777343750e+00) (670, -3.32229924201965332031e+00) (671, -9.52488541603088378906e-01) (672, -6.04748010635375976562e-01) (673, -1.93817746639251708984e+00) (674, -2.16123890876770019531e+00) (675, -1.20787537097930908203e+00) (676, -1.85876369476318359375e+00) (677, -2.40361779928207397461e-01) (678, -8.82672977447509765625e+00) (679, -1.07418417930603027344e+00) (680, -1.27656370401382446289e-01) (681, 8.36151242256164550781e-01) (682, 4.19785916805267333984e-01) (683, 1.26960384845733642578e+00) (684, 9.98488903045654296875e-01) (685, 3.57180051505565643311e-02) (686, 1.04108512401580810547e+00) (687, 2.77811121940612792969e+00) (688, 4.28598880767822265625e+00) (689, 2.92401766777038574219e+00) (690, 9.01838392019271850586e-02) (691, 5.73428571224212646484e-01) (692, 1.53919684886932373047e+00) (693, 6.45519852638244628906e-01) (694, 5.51977574825286865234e-01) (695, 1.98177421092987060547e+00) (696, 1.65705335140228271484e+00) (697, 1.68683147430419921875e+00) (698, 2.15492844581604003906e+00) (699, 1.93492472171783447266e+00) (700, 1.73712825775146484375e+00) (701, 2.00585651397705078125e+00) (702, 2.69966936111450195312e+00) (703, 3.63035511970520019531e+00) (704, 4.84377479553222656250e+00) (705, 4.40752029418945312500e+00) (706, 1.05377683639526367188e+01) (707, 1.40117387771606445312e+01) (708, 1.57041521072387695312e+01) (709, 1.60917701721191406250e+01) (710, 1.35687322616577148438e+01) (711, 5.15978431701660156250e+00) (712, 2.81241607666015625000e+00) (713, 2.52674460411071777344e+00) (714, 1.79156935214996337891e+00) (715, 2.67594981193542480469e+00) (716, 1.18028676509857177734e+00) (717, 2.44658303260803222656e+00) (718, 2.78674268722534179688e+00) (719, 1.23335587978363037109e+00) (720, 2.12290501594543457031e+00) (721, 1.80115377902984619141e+00) (722, 2.16672635078430175781e+00) (723, 1.76921939849853515625e+00) (724, 3.63483965396881103516e-01) (725, 1.70478805899620056152e-01) (726, 1.35665094852447509766e+00) (727, 2.58827209472656250000e+00) (728, 3.35623097419738769531e+00) (729, 9.80051898956298828125e+00) (730, 1.71314449310302734375e+01) (731, 5.43385648727416992188e+00) (732, 1.83843386173248291016e+00) (733, 1.75110206604003906250e+01) (734, 3.02870094776153564453e-01) (735, 4.54662591218948364258e-02) (736, 9.72611188888549804688e-01) (737, -5.71745991706848144531e-01) (738, 1.31556355953216552734e+00) (739, 8.96439611911773681641e-01) (740, 3.50137501955032348633e-01) (741, 1.12489402294158935547e+00) (742, 1.31896221637725830078e+00) (743, 7.21341490745544433594e-01) (744, 2.32200546264648437500e+01) (745, 2.29919109344482421875e+01) (746, 2.72444391250610351562e+00) (747, 1.09621772766113281250e+01) (748, 1.72939801216125488281e+00) (749, 3.02122831344604492188e-01) (750, 3.22688579559326171875e-01) (751, 6.29265725612640380859e-01) (752, -4.37918841838836669922e-01) (753, -1.02105163037776947021e-01) (754, -1.76060929894447326660e-01) (755, -2.27444544434547424316e-01) (756, 1.51476651430130004883e-01) (757, -6.41404271125793457031e-01) (758, -3.89837652444839477539e-01) (759, 3.31348991394042968750e+00) (760, 3.57828335836529731750e-04) (761, -1.74562513828277587891e+00) (762, 1.84897768497467041016e+00) 
